#include "model_weights.h"

// Model weights and biases implementation

// layers.0.weight - Shape: [32, 15]
const float layers_0_weight[480] = {
    -0.00001103f, -0.00478010f, -0.04001706f, 0.01447763f, -0.04767747f, -0.00855926f, 0.02070623f, -0.02340200f, -0.00198471f, -0.01105566f, -0.01067750f, -0.01113490f, 0.00610204f, -0.00850244f, 0.04133957f, 0.00004945f, 
    0.00049872f, -0.00692959f, 0.00227393f, -0.04861110f, 0.01178431f, -0.06407369f, -0.00669954f, 0.06486451f, -0.02497989f, 0.00867970f, 0.01448621f, -0.03430354f, 0.01160570f, -0.09440225f, 0.00001169f, -0.00132073f, 
    -0.02402864f, 0.00974618f, -0.02876979f, 0.03017137f, -0.05527608f, -0.03309425f, -0.08555849f, -0.06759681f, -0.01068485f, 0.00751087f, 0.01125276f, -0.00212372f, -0.08248074f, 0.00003674f, -0.00086773f, 0.00185556f, 
    -0.01611797f, 0.00110623f, -0.01902939f, 0.00269703f, 0.01372305f, 0.04850669f, 0.02876587f, 0.01462808f, 0.00193898f, 0.01037769f, -0.01590173f, -0.09414832f, 0.00000077f, -0.00392935f, 0.01287537f, -0.02050790f, 
    0.00434743f, -0.01140196f, -0.00298320f, -0.01484127f, 0.00061455f, -0.01821927f, 0.01235306f, -0.01035660f, 0.00922243f, -0.00429322f, 0.00837981f, 0.00000269f, -0.00029028f, -0.01942256f, 0.06269053f, -0.10528853f, 
    0.02951662f, 0.10406967f, -0.03681841f, 0.01383373f, 0.02089574f, -0.03238923f, -0.01079095f, 0.03798188f, -0.00001840f, 0.04724529f, -0.00001168f, 0.00030683f, -0.05586253f, 0.02279010f, -0.05998910f, -0.03872607f, 
    0.00133673f, -0.03914199f, -0.00944054f, -0.00932361f, -0.04400831f, -0.03489577f, -0.02236957f, 0.01915945f, 0.02606943f, 0.00001199f, 0.03447992f, 0.14159766f, -0.02073855f, 0.06268965f, -0.03201471f, -0.02535264f, 
    0.01867753f, 0.01687097f, 0.03183481f, -0.02743372f, 0.05925334f, -0.01159109f, 0.03313123f, 0.03874592f, 0.00004464f, 0.00417993f, 0.02006544f, -0.02923514f, 0.06043757f, 0.00232017f, 0.11052569f, 0.04681124f, 
    0.06840813f, 0.04844798f, 0.02278923f, 0.01217914f, 0.07519320f, -0.02586945f, -0.06850275f, -0.00000619f, 0.04454326f, -0.01687120f, 0.00603636f, -0.00175594f, 0.00820789f, 0.00262274f, 0.00297131f, 0.00292631f, 
    0.00223809f, -0.00028972f, 0.00087234f, -0.00191707f, 0.00069844f, -0.00153158f, -0.00000515f, -0.00210204f, -0.04385094f, -0.03114347f, -0.00313718f, -0.03902750f, -0.01770284f, -0.00058239f, -0.10811685f, 0.02895563f, 
    0.00508362f, -0.01196591f, 0.02376508f, -0.00080422f, -0.04621890f, -0.00000735f, 0.00025724f, -0.00522856f, 0.00237583f, 0.00949164f, -0.01087493f, 0.01565320f, 0.00628135f, -0.05801800f, 0.02319395f, -0.00038339f, 
    -0.01734094f, 0.02581771f, 0.01230730f, -0.11263715f, -0.00008916f, 0.00009644f, -0.00043471f, -0.00020811f, 0.00015641f, 0.00017096f, -0.00014724f, 0.00004156f, -0.00059593f, 0.00036449f, -0.00048781f, 0.00011087f, 
    -0.00005900f, -0.00066607f, 1.03370476f, -0.00000858f, -0.00215983f, -0.02783362f, -0.03890805f, -0.01065616f, 0.00671699f, 0.02571129f, 0.04004339f, -0.08111938f, -0.05756256f, -0.03489689f, -0.05156490f, -0.00480321f, 
    0.01628540f, -0.06119951f, -0.00001317f, 0.00088275f, -0.05915625f, 0.04466707f, -0.04265459f, -0.05950179f, -0.00734490f, -0.05785443f, -0.00761036f, -0.03124642f, -0.04654802f, -0.04086979f, -0.03836852f, 0.02699736f, 
    0.02703308f, -0.00000455f, 0.04153717f, -0.01562904f, 0.00903669f, -0.00067803f, 0.00559450f, 0.00117102f, 0.00291546f, 0.00283074f, 0.00197826f, -0.00098550f, 0.00076027f, -0.00278511f, 0.00007387f, -0.00109940f, 
    0.00000907f, 0.00398345f, -0.00978455f, -0.04774088f, -0.02139314f, -0.01941101f, -0.00625024f, 0.01445340f, 0.03040452f, -0.08157869f, -0.01813967f, -0.02275772f, 0.03191682f, 0.06007697f, -0.05147599f, 0.00000110f, 
    0.05318786f, 0.19709525f, -0.03759443f, 0.04197809f, -0.05037188f, 0.00223753f, -0.02153057f, 0.01160109f, 0.03001098f, 0.00216443f, 0.04201959f, -0.00090397f, 0.02251939f, 0.02360092f, -0.00001133f, 0.00011839f, 
    -0.01837078f, 0.03344043f, 0.03907600f, -0.01177766f, -0.05062940f, -0.00061392f, 0.03188654f, -0.02805135f, -0.02841609f, -0.00076097f, -0.02587694f, 0.03016431f, 0.08055092f, 0.00004800f, 0.00312285f, 0.02315609f, 
    0.00876794f, 0.00183259f, 0.03234706f, 0.00699623f, -0.00490578f, 0.12231442f, -0.01354551f, 0.06415106f, 0.02494794f, -0.02026445f, -0.04341258f, -0.09193493f, 0.00001568f, -0.00086394f, 0.01796811f, -0.03966543f, 
    0.01088520f, -0.01789351f, -0.00788352f, -0.00972613f, 0.00108778f, -0.01752543f, 0.01762266f, -0.01645528f, 0.00352866f, 0.00118726f, 0.00932945f, -0.00000120f, 0.04008416f, -0.01373659f, 0.00580397f, 0.00095167f, 
    0.00592084f, 0.00053208f, 0.00227999f, 0.00228175f, 0.00159800f, -0.00196175f, 0.00010826f, -0.00200382f, -0.00006208f, -0.00039979f, -0.00003563f, -0.00007488f, -0.00006510f, 0.00032791f, 0.00056352f, -0.00015959f, 
    -0.00052705f, -0.00028140f, 0.00027214f, 0.00026160f, 0.00021320f, -0.00042763f, -0.00013895f, -0.00058122f, 1.06785595f, -0.00000082f, 0.04274725f, -0.01632457f, 0.00636553f, -0.00078676f, 0.00686114f, 0.00270635f, 
    0.00346832f, 0.00379726f, 0.00341735f, 0.00050483f, 0.00009462f, -0.00133207f, 0.00030698f, -0.00160067f, -0.00000596f, 0.04314703f, -0.01753263f, 0.00665776f, 0.00100976f, 0.00600933f, 0.00072798f, 0.00251421f, 
    0.00188730f, 0.00315398f, -0.00127770f, 0.00053535f, -0.00092930f, 0.00067848f, -0.00093462f, 0.00000096f, -0.00043320f, 0.00312000f, 0.00198719f, -0.00672946f, 0.00869448f, -0.01714091f, 0.01299263f, -0.00280118f, 
    0.02526354f, -0.04939919f, 0.06259035f, -0.06038976f, 0.02783436f, 0.24738756f, -0.00001389f, -0.00105688f, 0.00037754f, -0.00088037f, 0.00167918f, -0.00153113f, 0.00301285f, -0.00509562f, 0.00186116f, -0.00629853f, 
    0.00602653f, -0.00309784f, 0.00581153f, -0.00350672f, -0.39755234f, 0.00001151f, 0.00328478f, 0.01931971f, 0.01915742f, 0.03358401f, 0.03388624f, 0.01874936f, -0.00134381f, -0.01332243f, -0.01243259f, 0.05414207f, 
    0.04040593f, 0.07199954f, 0.06265805f, -0.08516882f, 0.00001853f, -0.00072709f, -0.00831600f, -0.00739789f, -0.00423928f, 0.00097796f, 0.01379454f, 0.00752308f, -0.00346063f, -0.02432030f, -0.00484141f, -0.06162502f, 
    -0.02221910f, -0.03793041f, -0.21627162f, 0.00013201f, -0.00097659f, 0.00046789f, -0.00187575f, 0.00117168f, -0.00298717f, -0.00132195f, -0.00245026f, -0.00002574f, -0.00164073f, 0.00090232f, -0.00092039f, -0.00044724f, 
    -0.00098026f, -0.77830851f, -0.00001247f, -0.00641424f, -0.04909974f, 0.01553770f, -0.05221224f, 0.00142605f, 0.01236562f, -0.01972702f, -0.00043392f, -0.00627885f, -0.02526154f, -0.00902023f, -0.00210774f, -0.00515712f, 
    0.03688721f, 0.00011488f, -0.00083844f, 0.00071297f, -0.00178947f, 0.00045019f, -0.00235196f, -0.00121396f, -0.00266434f, -0.00036580f, -0.00094903f, 0.00158295f, -0.00124450f, -0.00107489f, 0.00129744f, -0.61686069f
};

// layers.0.bias - Shape: [32]
const float layers_0_bias[32] = {
    -0.00010060f, 0.00252285f, 0.00050270f, 0.00404918f, 0.00225056f, 0.00085670f, -0.00084895f, -0.00296266f, 0.00511234f, -0.00077549f, 0.00083488f, 0.00503474f, -0.00401193f, 0.00183444f, -0.00115916f, -0.00064259f, 
    0.00432233f, -0.00227254f, -0.00160533f, 0.00850663f, 0.00329817f, -0.00070097f, -0.00434467f, -0.00065493f, -0.00105811f, -0.00207960f, 0.01522418f, 0.00611439f, 0.00269484f, 0.07303067f, -0.00043405f, 0.03778420f
};

// layers.3.weight - Shape: [8, 32]
const float layers_3_weight[256] = {
    -0.01055672f, 0.06368329f, 0.04210059f, 0.04725403f, 0.01784925f, -0.02757504f, -0.02829851f, -0.02005383f, 0.06628286f, -0.01739521f, 0.02408045f, 0.05461913f, -0.31833836f, 0.04348939f, -0.01913566f, -0.01965204f, 
    0.05596504f, -0.01418606f, -0.01735782f, 0.06956041f, 0.02404426f, -0.02070595f, -0.31412095f, -0.01985699f, -0.02039243f, -0.04892306f, 0.13446669f, 0.06490768f, 0.08889133f, 0.29755628f, -0.01551601f, 0.24436575f, 
    -0.01224115f, 0.06662360f, 0.04503375f, 0.04481633f, 0.01820929f, -0.02649780f, -0.02748363f, -0.01715899f, 0.06249908f, -0.01723592f, 0.02685633f, 0.05900660f, -0.31695712f, 0.04195469f, -0.01794030f, -0.01844729f, 
    0.05762322f, -0.01329091f, -0.01661834f, 0.06804293f, 0.02446653f, -0.01943065f, -0.30978778f, -0.01277212f, -0.02157673f, -0.04426372f, 0.13779771f, 0.06752240f, 0.09333137f, 0.30370709f, -0.01519035f, 0.24727204f, 
    -0.00760143f, 0.06075138f, 0.04929085f, 0.04199143f, 0.01811511f, -0.02590549f, -0.02717184f, -0.01775068f, 0.06564339f, -0.01774765f, 0.03287173f, 0.05690165f, -0.31829467f, 0.03839080f, -0.02116081f, -0.01579593f, 
    0.06042760f, -0.01365256f, -0.02252528f, 0.06887329f, 0.02238008f, -0.01873623f, -0.31506822f, -0.01535830f, -0.01802645f, -0.05056512f, 0.13837692f, 0.06495377f, 0.08788774f, 0.29931068f, -0.02019727f, 0.24400805f, 
    0.01979740f, -0.03145907f, -0.01840503f, -0.00967530f, 0.02032311f, 0.02000360f, 0.02149133f, 0.03207672f, -0.01988360f, -0.02439781f, -0.00749420f, -0.02700623f, 0.35887328f, -0.00811438f, 0.02640167f, -0.02016168f, 
    -0.03053123f, 0.02503653f, 0.03853339f, -0.02890633f, 0.02467472f, -0.02004366f, 0.36504319f, -0.02065396f, -0.02088093f, 0.06684753f, -0.10478314f, -0.02992829f, -0.03917312f, -0.24354878f, 0.02300336f, -0.20483357f, 
    0.01599467f, -0.02652013f, -0.01490607f, -0.00489431f, 0.01846613f, 0.04019491f, 0.01781669f, 0.02555788f, -0.02157820f, -0.01967152f, -0.00767829f, -0.02786306f, 0.38530782f, -0.00709357f, 0.02909494f, -0.02004639f, 
    -0.02344871f, 0.01572596f, 0.04131421f, -0.02812648f, 0.02791644f, -0.01575119f, 0.39109364f, -0.01945810f, -0.01681171f, 0.07354251f, -0.10201241f, -0.03651322f, -0.03963924f, -0.24459058f, 0.00495046f, -0.20509720f, 
    0.01236215f, -0.03026241f, -0.01855090f, -0.00416759f, 0.01745361f, 0.02628420f, 0.03501893f, 0.02745643f, -0.01833931f, -0.02098753f, -0.00535221f, -0.02885906f, 0.38628948f, -0.01237472f, 0.02447309f, -0.02273500f, 
    -0.02547638f, 0.01718993f, 0.03540596f, -0.02562931f, 0.02392758f, -0.01929335f, 0.39368898f, -0.02117047f, -0.02076251f, 0.07677929f, -0.10345380f, -0.03055031f, -0.04005086f, -0.24876773f, 0.00827894f, -0.20709905f, 
    0.02384904f, -0.03292687f, -0.01772842f, -0.00463054f, 0.01847236f, 0.02383826f, 0.02485995f, 0.02290711f, -0.01903972f, -0.02036478f, -0.00460662f, -0.02745931f, 0.39454901f, -0.01055567f, 0.02282591f, -0.01657908f, 
    -0.02421600f, 0.01219572f, 0.03825185f, -0.02608401f, 0.02428343f, -0.01888669f, 0.39384556f, -0.02245914f, -0.02032949f, 0.07603740f, -0.10453080f, -0.03178545f, -0.03888979f, -0.24943149f, 0.00132459f, -0.20829567f, 
    -0.01322017f, 0.06279688f, 0.04973644f, 0.04118874f, 0.01751171f, -0.02436340f, -0.03128830f, -0.01867201f, 0.06593359f, -0.02033423f, 0.04207019f, 0.05398726f, -0.31446525f, 0.03425284f, -0.02036230f, -0.01879468f, 
    0.05646035f, -0.01721070f, -0.02493502f, 0.06739906f, 0.02028890f, -0.01772679f, -0.30785033f, -0.01892417f, -0.02115500f, -0.04504250f, 0.13844629f, 0.06985856f, 0.09041370f, 0.30133766f, -0.01717070f, 0.24425156f
};

// layers.3.bias - Shape: [8]
const float layers_3_bias[8] = {
    0.04212166f, 0.04826561f, 0.04467048f, 0.01901868f, 0.03553597f, 0.03553056f, 0.03744834f, 0.04751694f
};

// output_layer.weight - Shape: [2, 8]
const float output_layer_weight[16] = {
    0.44893995f, 0.45210168f, 0.45028389f, -0.43369260f, -0.46352637f, -0.46826777f, -0.47078797f, 0.44744274f, -0.44801560f, -0.45041534f, -0.44861194f, 0.43457675f, 0.46348527f, 0.46586221f, 0.46884483f, -0.44768533f
};

// output_layer.bias - Shape: [2]
const float output_layer_bias[2] = {
    0.04038678f, -0.03939233f
};

// Network layer configuration
const layer_t network_layers[] = {
    { layers_0_weight, layers_0_bias, 15, 32 },
    { layers_3_weight, layers_3_bias, 32, 8 },

};

const int network_num_layers = sizeof(network_layers) / sizeof(layer_t);
