{
  "layers.0.weight": {
    "data": [
      [
        -1.1034519957320299e-05,
        -0.004780101589858532,
        -0.040017057210206985,
        0.014477626420557499,
        -0.04767747223377228,
        -0.008559261448681355,
        0.020706234499812126,
        -0.023401999846100807,
        -0.001984712202101946,
        -0.011055663228034973,
        -0.010677504353225231,
        -0.011134897358715534,
        0.006102041341364384,
        -0.008502435870468616,
        0.04133957251906395
      ],
      [
        4.9448241043137386e-05,
        0.0004987184074707329,
        -0.0069295926950871944,
        0.00227393489331007,
        -0.0486111044883728,
        0.011784312315285206,
        -0.06407368928194046,
        -0.006699542980641127,
        0.06486450880765915,
        -0.024979891255497932,
        0.00867969635874033,
        0.014486211352050304,
        -0.03430354222655296,
        0.011605699546635151,
        -0.0944022536277771
      ],
      [
        1.169164534076117e-05,
        -0.0013207253068685532,
        -0.024028636515140533,
        0.009746178984642029,
        -0.02876978926360607,
        0.03017137385904789,
        -0.05527608096599579,
        -0.033094245940446854,
        -0.08555848896503448,
        -0.06759680807590485,
        -0.010684849694371223,
        0.00751087348908186,
        0.011252759024500847,
        -0.0021237197797745466,
        -0.08248074352741241
      ],
      [
        3.674109757412225e-05,
        -0.0008677291916683316,
        0.0018555624410510063,
        -0.016117973253130913,
        0.0011062314733862877,
        -0.019029388204216957,
        0.002697027288377285,
        0.013723048381507397,
        0.04850669205188751,
        0.028765873983502388,
        0.014628076925873756,
        0.0019389763474464417,
        0.010377691127359867,
        -0.015901731327176094,
        -0.09414832293987274
      ],
      [
        7.717667358519975e-07,
        -0.003929350059479475,
        0.012875368818640709,
        -0.020507903769612312,
        0.00434742821380496,
        -0.011401964351534843,
        -0.0029832040891051292,
        -0.014841272495687008,
        0.0006145472289063036,
        -0.018219266086816788,
        0.012353061698377132,
        -0.0103566013276577,
        0.009222432971000671,
        -0.004293215461075306,
        0.008379807695746422
      ],
      [
        2.6907191568170674e-06,
        -0.00029027723940089345,
        -0.019422555342316628,
        0.06269053369760513,
        -0.10528852790594101,
        0.029516618698835373,
        0.10406967252492905,
        -0.03681841492652893,
        0.013833734206855297,
        0.020895743742585182,
        -0.03238922730088234,
        -0.010790945962071419,
        0.03798187896609306,
        -1.8397737221675925e-05,
        0.047245290130376816
      ],
      [
        -1.1682723197736777e-05,
        0.0003068297228310257,
        -0.055862534791231155,
        0.022790102288126945,
        -0.05998909845948219,
        -0.038726065307855606,
        0.001336729503236711,
        -0.03914199024438858,
        -0.00944054126739502,
        -0.009323609061539173,
        -0.04400830715894699,
        -0.034895770251750946,
        -0.022369571030139923,
        0.01915944740176201,
        0.02606942690908909
      ],
      [
        1.198860991280526e-05,
        0.03447991982102394,
        0.1415976583957672,
        -0.020738547667860985,
        0.0626896470785141,
        -0.03201470524072647,
        -0.025352636352181435,
        0.01867753453552723,
        0.016870973631739616,
        0.031834810972213745,
        -0.027433723211288452,
        0.05925333872437477,
        -0.011591090820729733,
        0.033131230622529984,
        0.03874592483043671
      ],
      [
        4.464200173970312e-05,
        0.004179933574050665,
        0.020065443590283394,
        -0.02923513576388359,
        0.06043757125735283,
        0.0023201697040349245,
        0.1105256900191307,
        0.046811241656541824,
        0.06840813159942627,
        0.048447977751493454,
        0.022789226844906807,
        0.012179143726825714,
        0.07519320398569107,
        -0.025869449600577354,
        -0.0685027465224266
      ],
      [
        -6.192038654262433e-06,
        0.04454325512051582,
        -0.01687120459973812,
        0.006036359816789627,
        -0.001755937235429883,
        0.008207887411117554,
        0.0026227408088743687,
        0.002971310168504715,
        0.002926306100562215,
        0.002238085027784109,
        -0.0002897196391131729,
        0.0008723410428501666,
        -0.0019170690793544054,
        0.000698437390383333,
        -0.001531575107946992
      ],
      [
        -5.151980076334439e-06,
        -0.0021020392887294292,
        -0.04385094344615936,
        -0.031143466010689735,
        -0.003137184539809823,
        -0.03902750462293625,
        -0.017702840268611908,
        -0.0005823883111588657,
        -0.10811685025691986,
        0.028955627232789993,
        0.005083624739199877,
        -0.011965910904109478,
        0.0237650778144598,
        -0.0008042206172831357,
        -0.04621890187263489
      ],
      [
        -7.35014327801764e-06,
        0.0002572376688476652,
        -0.005228555295616388,
        0.0023758343886584044,
        0.00949164479970932,
        -0.010874929837882519,
        0.015653202310204506,
        0.006281352136284113,
        -0.058017995208501816,
        0.023193947970867157,
        -0.0003833856899291277,
        -0.01734093949198723,
        0.025817710906267166,
        0.012307303957641125,
        -0.11263714730739594
      ],
      [
        -8.916117803892121e-05,
        9.644209058023989e-05,
        -0.00043470654054544866,
        -0.00020810533897019923,
        0.00015641417121514678,
        0.0001709584321361035,
        -0.00014723572530783713,
        4.155694477958605e-05,
        -0.0005959256668575108,
        0.000364493957022205,
        -0.0004878054896835238,
        0.00011087034363299608,
        -5.8998797612730414e-05,
        -0.0006660651415586472,
        1.0337047576904297
      ],
      [
        -8.57573832035996e-06,
        -0.0021598278544843197,
        -0.027833616361021996,
        -0.03890804573893547,
        -0.010656158439815044,
        0.0067169857211411,
        0.025711288675665855,
        0.04004339128732681,
        -0.08111938089132309,
        -0.05756256356835365,
        -0.034896887838840485,
        -0.05156489834189415,
        -0.004803207237273455,
        0.016285398975014687,
        -0.06119951233267784
      ],
      [
        -1.3171823411539663e-05,
        0.000882750260643661,
        -0.059156253933906555,
        0.044667065143585205,
        -0.04265459254384041,
        -0.05950179323554039,
        -0.007344902493059635,
        -0.05785442516207695,
        -0.00761035643517971,
        -0.031246423721313477,
        -0.046548016369342804,
        -0.04086978733539581,
        -0.03836851939558983,
        0.026997359469532967,
        0.02703307941555977
      ],
      [
        -4.549777258944232e-06,
        0.041537169367074966,
        -0.01562904193997383,
        0.00903668999671936,
        -0.0006780341500416398,
        0.005594499874860048,
        0.0011710175313055515,
        0.0029154557269066572,
        0.002830738900229335,
        0.0019782613962888718,
        -0.0009855023818090558,
        0.0007602710393257439,
        -0.002785107120871544,
        7.386707875411958e-05,
        -0.0010994034819304943
      ],
      [
        9.072864486370236e-06,
        0.003983453847467899,
        -0.009784546680748463,
        -0.0477408841252327,
        -0.021393142640590668,
        -0.019411008805036545,
        -0.006250239443033934,
        0.014453401789069176,
        0.03040452115237713,
        -0.08157868683338165,
        -0.018139673396945,
        -0.022757722064852715,
        0.031916823238134384,
        0.060076966881752014,
        -0.051475994288921356
      ],
      [
        1.0998051038768608e-06,
        0.05318785831332207,
        0.19709524512290955,
        -0.03759443387389183,
        0.04197809100151062,
        -0.05037187784910202,
        0.002237532055005431,
        -0.02153056673705578,
        0.011601094156503677,
        0.030010981485247612,
        0.002164426725357771,
        0.04201958701014519,
        -0.000903969572391361,
        0.022519391030073166,
        0.02360091544687748
      ],
      [
        -1.1326651474519167e-05,
        0.0001183939166367054,
        -0.01837077923119068,
        0.033440425992012024,
        0.039076000452041626,
        -0.011777659878134727,
        -0.0506293959915638,
        -0.0006139197503216565,
        0.03188654035329819,
        -0.0280513484030962,
        -0.028416091576218605,
        -0.0007609650492668152,
        -0.025876939296722412,
        0.030164310708642006,
        0.080550916492939
      ],
      [
        4.799658927368e-05,
        0.003122845431789756,
        0.023156093433499336,
        0.008767935447394848,
        0.001832587644457817,
        0.03234705701470375,
        0.00699623441323638,
        -0.004905783571302891,
        0.12231441587209702,
        -0.013545513153076172,
        0.06415105611085892,
        0.024947935715317726,
        -0.02026444673538208,
        -0.04341258108615875,
        -0.091934934258461
      ],
      [
        1.568052903166972e-05,
        -0.0008639417355880141,
        0.017968108877539635,
        -0.039665427058935165,
        0.010885204188525677,
        -0.017893513664603233,
        -0.007883516140282154,
        -0.009726126678287983,
        0.0010877754539251328,
        -0.017525434494018555,
        0.01762266457080841,
        -0.01645527593791485,
        0.0035286571364849806,
        0.001187262125313282,
        0.009329447522759438
      ],
      [
        -1.2044019968016073e-06,
        0.04008416086435318,
        -0.013736591674387455,
        0.005803972017019987,
        0.0009516669088043272,
        0.00592084089294076,
        0.0005320758209563792,
        0.002279994310811162,
        0.002281747292727232,
        0.001598001574166119,
        -0.0019617483485490084,
        0.00010826225479831919,
        -0.002003823406994343,
        -6.207602564245462e-05,
        -0.0003997929161414504
      ],
      [
        -3.5630102502182126e-05,
        -7.487984839826822e-05,
        -6.510280218208209e-05,
        0.00032791277044452727,
        0.0005635175621137023,
        -0.00015959316806402057,
        -0.0005270525580272079,
        -0.0002814019098877907,
        0.0002721365599427372,
        0.00026160397101193666,
        0.00021320390806067735,
        -0.00042763343662954867,
        -0.00013894766743760556,
        -0.0005812241579405963,
        1.067855954170227
      ],
      [
        -8.244464879680891e-07,
        0.04274725168943405,
        -0.016324568539857864,
        0.006365534383803606,
        -0.0007867630338296294,
        0.006861136760562658,
        0.0027063479647040367,
        0.0034683202393352985,
        0.0037972594145685434,
        0.003417351981624961,
        0.0005048314342275262,
        9.461832814849913e-05,
        -0.0013320660218596458,
        0.00030697835609316826,
        -0.0016006657388061285
      ],
      [
        -5.962280738458503e-06,
        0.04314703494310379,
        -0.017532626166939735,
        0.0066577596589922905,
        0.0010097568156197667,
        0.0060093337669968605,
        0.0007279778947122395,
        0.002514210296794772,
        0.0018872976070269942,
        0.003153975121676922,
        -0.0012777032097801566,
        0.0005353462765924633,
        -0.000929302244912833,
        0.0006784775760024786,
        -0.0009346228325739503
      ],
      [
        9.598516044206917e-07,
        -0.0004331961099524051,
        0.0031200002413243055,
        0.00198718742467463,
        -0.006729462184011936,
        0.008694482035934925,
        -0.017140911892056465,
        0.012992625124752522,
        -0.002801184542477131,
        0.02526354417204857,
        -0.04939919337630272,
        0.0625903531908989,
        -0.06038976088166237,
        0.027834363281726837,
        0.24738755822181702
      ],
      [
        -1.3887285604141653e-05,
        -0.0010568770812824368,
        0.0003775406803470105,
        -0.0008803687524050474,
        0.001679175766184926,
        -0.0015311265597119927,
        0.0030128476209938526,
        -0.005095622036606073,
        0.0018611622508615255,
        -0.006298530381172895,
        0.006026530638337135,
        -0.0030978412833064795,
        0.005811530165374279,
        -0.0035067182034254074,
        -0.39755234122276306
      ],
      [
        1.1514352081576362e-05,
        0.0032847782131284475,
        0.01931970752775669,
        0.019157422706484795,
        0.03358400613069534,
        0.03388623520731926,
        0.018749356269836426,
        -0.0013438122114166617,
        -0.013322433456778526,
        -0.012432587333023548,
        0.054142072796821594,
        0.04040592908859253,
        0.07199954241514206,
        0.06265804916620255,
        -0.08516881614923477
      ],
      [
        1.85320768650854e-05,
        -0.0007270923815667629,
        -0.008316002786159515,
        -0.007397886831313372,
        -0.004239275585860014,
        0.0009779618121683598,
        0.013794539496302605,
        0.007523084990680218,
        -0.003460625419393182,
        -0.02432030439376831,
        -0.004841407295316458,
        -0.06162501871585846,
        -0.022219104692339897,
        -0.037930410355329514,
        -0.21627162396907806
      ],
      [
        0.00013200842658989131,
        -0.0009765875292941928,
        0.00046788653708063066,
        -0.001875746762380004,
        0.0011716843582689762,
        -0.0029871677979826927,
        -0.0013219536049291492,
        -0.0024502582382410765,
        -2.573604251665529e-05,
        -0.001640727394260466,
        0.0009023206657730043,
        -0.0009203930967487395,
        -0.00044724380131810904,
        -0.0009802564745768905,
        -0.7783085107803345
      ],
      [
        -1.2466803127608728e-05,
        -0.006414240226149559,
        -0.04909973964095116,
        0.015537695959210396,
        -0.05221224203705788,
        0.0014260481111705303,
        0.012365622445940971,
        -0.019727015867829323,
        -0.00043392356019467115,
        -0.00627884641289711,
        -0.025261536240577698,
        -0.009020227007567883,
        -0.0021077420096844435,
        -0.0051571158692240715,
        0.03688720986247063
      ],
      [
        0.00011488416203064844,
        -0.000838437641505152,
        0.0007129707373678684,
        -0.0017894696211442351,
        0.0004501929506659508,
        -0.0023519624955952168,
        -0.0012139640748500824,
        -0.002664341824129224,
        -0.0003658032219391316,
        -0.0009490335360169411,
        0.001582951983436942,
        -0.0012444957392290235,
        -0.0010748911881819367,
        0.0012974367709830403,
        -0.6168606877326965
      ]
    ],
    "shape": [
      32,
      15
    ],
    "dtype": "torch.float32"
  },
  "layers.0.bias": {
    "data": [
      -0.00010060025670100003,
      0.002522854832932353,
      0.0005026984727010131,
      0.004049175884574652,
      0.0022505649831146,
      0.0008567003533244133,
      -0.0008489482570439577,
      -0.0029626605100929737,
      0.00511234300211072,
      -0.0007754901307635009,
      0.0008348750998266041,
      0.005034739151597023,
      -0.004011931363493204,
      0.0018344405107200146,
      -0.001159157371148467,
      -0.0006425894680432975,
      0.004322330467402935,
      -0.0022725423332303762,
      -0.001605325611308217,
      0.008506628684699535,
      0.003298169933259487,
      -0.0007009665132500231,
      -0.004344668239355087,
      -0.0006549293175339699,
      -0.0010581144597381353,
      -0.0020795974414795637,
      0.015224180184304714,
      0.006114386022090912,
      0.002694842405617237,
      0.07303067296743393,
      -0.00043404600000940263,
      0.03778419643640518
    ],
    "shape": [
      32
    ],
    "dtype": "torch.float32"
  },
  "layers.3.weight": {
    "data": [
      [
        -0.0105567192658782,
        0.06368329375982285,
        0.042100585997104645,
        0.04725402593612671,
        0.01784924976527691,
        -0.027575036510825157,
        -0.02829851023852825,
        -0.02005382813513279,
        0.06628286093473434,
        -0.017395205795764923,
        0.024080447852611542,
        0.05461912974715233,
        -0.3183383643627167,
        0.04348938539624214,
        -0.01913566142320633,
        -0.01965204067528248,
        0.05596504360437393,
        -0.014186060056090355,
        -0.01735782064497471,
        0.06956040859222412,
        0.024044258520007133,
        -0.020705951377749443,
        -0.31412094831466675,
        -0.019856994971632957,
        -0.02039242908358574,
        -0.048923060297966,
        0.13446669280529022,
        0.06490768492221832,
        0.08889133483171463,
        0.2975562810897827,
        -0.0155160091817379,
        0.24436575174331665
      ],
      [
        -0.012241148389875889,
        0.06662359833717346,
        0.04503374919295311,
        0.04481633007526398,
        0.018209293484687805,
        -0.02649780362844467,
        -0.027483629062771797,
        -0.01715898886322975,
        0.06249907612800598,
        -0.01723591983318329,
        0.026856329292058945,
        0.059006597846746445,
        -0.31695711612701416,
        0.04195468872785568,
        -0.017940301448106766,
        -0.018447287380695343,
        0.05762322247028351,
        -0.013290909118950367,
        -0.016618341207504272,
        0.06804292649030685,
        0.024466531351208687,
        -0.019430652260780334,
        -0.309787780046463,
        -0.012772120535373688,
        -0.02157672680914402,
        -0.044263724237680435,
        0.13779771327972412,
        0.06752239912748337,
        0.09333136677742004,
        0.303707093000412,
        -0.015190353617072105,
        0.2472720444202423
      ],
      [
        -0.007601429708302021,
        0.060751378536224365,
        0.04929084703326225,
        0.041991427540779114,
        0.018115105107426643,
        -0.025905489921569824,
        -0.02717183530330658,
        -0.017750678583979607,
        0.06564339250326157,
        -0.017747653648257256,
        0.03287172690033913,
        0.05690164864063263,
        -0.3182946741580963,
        0.03839079663157463,
        -0.021160805597901344,
        -0.015795929357409477,
        0.060427598655223846,
        -0.0136525584384799,
        -0.022525282576680183,
        0.06887328624725342,
        0.022380080074071884,
        -0.018736230209469795,
        -0.31506821513175964,
        -0.015358299016952515,
        -0.018026450648903847,
        -0.050565119832754135,
        0.13837692141532898,
        0.0649537667632103,
        0.08788774162530899,
        0.29931068420410156,
        -0.020197274163365364,
        0.24400804936885834
      ],
      [
        0.019797401502728462,
        -0.03145907074213028,
        -0.01840502768754959,
        -0.009675304405391216,
        0.02032311074435711,
        0.02000359632074833,
        0.02149132825434208,
        0.03207671642303467,
        -0.019883599132299423,
        -0.02439781464636326,
        -0.007494199555367231,
        -0.027006227523088455,
        0.35887327790260315,
        -0.00811438076198101,
        0.026401665061712265,
        -0.020161684602499008,
        -0.030531227588653564,
        0.025036530569195747,
        0.03853338584303856,
        -0.02890632674098015,
        0.02467472292482853,
        -0.020043663680553436,
        0.36504319310188293,
        -0.02065395936369896,
        -0.02088093012571335,
        0.06684752553701401,
        -0.10478314012289047,
        -0.029928289353847504,
        -0.03917311877012253,
        -0.24354878067970276,
        0.023003358393907547,
        -0.20483356714248657
      ],
      [
        0.015994668006896973,
        -0.026520133018493652,
        -0.014906068332493305,
        -0.0048943073488771915,
        0.018466129899024963,
        0.040194906294345856,
        0.01781669445335865,
        0.025557875633239746,
        -0.021578198298811913,
        -0.019671522080898285,
        -0.007678285241127014,
        -0.027863062918186188,
        0.38530781865119934,
        -0.007093571126461029,
        0.029094941914081573,
        -0.020046386867761612,
        -0.023448709398508072,
        0.015725962817668915,
        0.04131421074271202,
        -0.028126481920480728,
        0.02791643515229225,
        -0.0157511904835701,
        0.3910936415195465,
        -0.019458098337054253,
        -0.016811707988381386,
        0.0735425129532814,
        -0.10201241075992584,
        -0.03651321679353714,
        -0.03963924199342728,
        -0.24459058046340942,
        0.004950464703142643,
        -0.20509719848632812
      ],
      [
        0.01236215140670538,
        -0.030262412503361702,
        -0.018550902605056763,
        -0.004167589824646711,
        0.017453614622354507,
        0.026284199208021164,
        0.035018932074308395,
        0.027456430718302727,
        -0.018339307978749275,
        -0.020987533032894135,
        -0.00535221491008997,
        -0.028859063982963562,
        0.38628947734832764,
        -0.012374719604849815,
        0.024473093450069427,
        -0.022734997794032097,
        -0.025476383045315742,
        0.017189934849739075,
        0.0354059562087059,
        -0.025629309937357903,
        0.023927582427859306,
        -0.01929335482418537,
        0.39368897676467896,
        -0.021170474588871002,
        -0.02076251059770584,
        0.07677929103374481,
        -0.10345380008220673,
        -0.030550306662917137,
        -0.04005085676908493,
        -0.24876773357391357,
        0.008278943598270416,
        -0.207099050283432
      ],
      [
        0.023849040269851685,
        -0.03292686864733696,
        -0.017728419974446297,
        -0.004630536772310734,
        0.018472356721758842,
        0.023838264867663383,
        0.024859951809048653,
        0.022907111793756485,
        -0.019039716571569443,
        -0.020364781841635704,
        -0.00460662180557847,
        -0.02745930664241314,
        0.39454901218414307,
        -0.010555673390626907,
        0.02282590977847576,
        -0.01657908409833908,
        -0.024216003715991974,
        0.01219572126865387,
        0.0382518470287323,
        -0.026084011420607567,
        0.024283429607748985,
        -0.018886692821979523,
        0.3938455581665039,
        -0.022459140047430992,
        -0.020329488441348076,
        0.07603739947080612,
        -0.10453079640865326,
        -0.03178545460104942,
        -0.03888978809118271,
        -0.24943149089813232,
        0.0013245901791378856,
        -0.20829567313194275
      ],
      [
        -0.013220167718827724,
        0.06279688328504562,
        0.049736443907022476,
        0.04118873551487923,
        0.017511706799268723,
        -0.024363398551940918,
        -0.03128829598426819,
        -0.01867201365530491,
        0.06593358516693115,
        -0.020334234461188316,
        0.042070187628269196,
        0.053987257182598114,
        -0.3144652545452118,
        0.034252844750881195,
        -0.02036229893565178,
        -0.01879468373954296,
        0.05646035075187683,
        -0.0172106996178627,
        -0.02493501827120781,
        0.06739906221628189,
        0.020288895815610886,
        -0.017726793885231018,
        -0.30785033106803894,
        -0.018924174830317497,
        -0.021154997870326042,
        -0.0450424998998642,
        0.13844628632068634,
        0.06985855847597122,
        0.09041369706392288,
        0.30133765935897827,
        -0.017170704901218414,
        0.2442515641450882
      ]
    ],
    "shape": [
      8,
      32
    ],
    "dtype": "torch.float32"
  },
  "layers.3.bias": {
    "data": [
      0.042121659964323044,
      0.04826561361551285,
      0.044670481234788895,
      0.019018683582544327,
      0.035535965114831924,
      0.035530559718608856,
      0.03744834288954735,
      0.04751694202423096
    ],
    "shape": [
      8
    ],
    "dtype": "torch.float32"
  },
  "output_layer.weight": {
    "data": [
      [
        0.4489399492740631,
        0.4521016776561737,
        0.45028388500213623,
        -0.43369260430336,
        -0.4635263681411743,
        -0.4682677686214447,
        -0.47078797221183777,
        0.4474427402019501
      ],
      [
        -0.44801560044288635,
        -0.45041534304618835,
        -0.44861194491386414,
        0.43457674980163574,
        0.4634852707386017,
        0.4658622145652771,
        0.46884483098983765,
        -0.4476853311061859
      ]
    ],
    "shape": [
      2,
      8
    ],
    "dtype": "torch.float32"
  },
  "output_layer.bias": {
    "data": [
      0.040386781096458435,
      -0.03939233347773552
    ],
    "shape": [
      2
    ],
    "dtype": "torch.float32"
  }
}